#include <eml_net.h>
static const float seqdense_layer0_weights[81] = { -0.023710f, -0.030571f, 0.081275f, 0.007805f, 0.016479f, -0.009855f, -0.036007f, -0.041610f, -0.004006f, -0.302746f, -0.362703f, 0.217751f, 0.153673f, 0.411918f, 0.146106f, -0.663077f, -0.273972f, -0.096029f, -0.152614f, 0.272523f, 0.804910f, -0.565043f, 0.217490f, -0.369744f, -0.278887f, 0.124035f, 0.158256f, 0.139788f, -0.260644f, 0.233092f, 0.164244f, 0.307074f, -0.231711f, -0.376233f, 0.179945f, 0.395484f, 0.041114f, -0.005131f, -0.054589f, -0.015849f, 0.006568f, 0.025090f, 0.010899f, 0.051172f, 0.040156f, 0.632583f, -0.355495f, 0.324741f, -0.298853f, 0.044016f, 0.157301f, 0.156687f, 0.481091f, 0.890564f, -0.207309f, -0.443374f, -0.376342f, -0.009956f, -0.054121f, -0.263094f, -0.092018f, 0.588421f, 0.432919f, -0.342905f, -0.141556f, -0.533601f, -0.373451f, 0.070482f, 0.391660f, 0.125103f, 0.044240f, 0.650559f, -0.078986f, 0.374172f, 0.162297f, 0.192467f, -0.400040f, -0.513583f, 0.301362f, -0.685585f, 0.212556f };
static const float seqdense_layer0_biases[9] = { 0.023972f, 0.339670f, -0.497980f, -0.161847f, 0.199926f, -0.085396f, 0.454047f, -0.039538f, -0.460849f };
static const float seqdense_layer1_weights[576] = { -0.002646f, -0.000115f, -0.005249f, 0.004042f, -0.017250f, -0.006150f, -0.009779f, 0.002226f, -0.003151f, 0.002460f, -0.003191f, -0.005873f, 0.006115f, 0.005147f, 0.008273f, 0.013192f, 0.002051f, 0.002228f, -0.001274f, 0.007818f, -0.007257f, 0.007474f, -0.002372f, -0.001229f, -0.002432f, 0.009464f, 0.001756f, 0.005355f, 0.000039f, -0.002130f, -0.009917f, 0.008724f, 0.008480f, -0.000943f, 0.007877f, -0.002123f, 0.001719f, -0.004299f, 0.001441f, 0.006618f, 0.006821f, 0.001818f, -0.005879f, 0.001381f, 0.002535f, 0.002873f, -0.003729f, -0.002638f, -0.003916f, 0.001368f, -0.000302f, 0.005839f, 0.002343f, -0.005740f, 0.006193f, 0.000684f, 0.003353f, 0.000473f, 0.003530f, 0.001654f, -0.005548f, -0.006525f, 0.003379f, 0.000575f, 0.000803f, -0.003429f, 0.004659f, 0.007934f, -0.003640f, -0.000548f, -0.003633f, -0.000667f, -0.002943f, -0.001031f, -0.005015f, -0.006407f, -0.009151f, 0.000938f, -0.004071f, 0.004947f, -0.006274f, 0.002398f, 0.010262f, -0.005663f, -0.010690f, 0.000260f, 0.001163f, -0.003478f, 0.004146f, 0.007579f, 0.003946f, 0.005960f, 0.005578f, -0.002504f, -0.000017f, 0.002531f, 0.001377f, 0.001033f, -0.005218f, 0.002932f, 0.004550f, -0.000939f, 0.000313f, 0.007098f, -0.000779f, 0.008566f, -0.001230f, 0.001964f, 0.001328f, 0.001273f, 0.002740f, 0.002235f, 0.006590f, -0.007260f, 0.004439f, 0.002674f, 0.005069f, 0.003340f, 0.005006f, -0.007300f, -0.006169f, 0.008845f, -0.001661f, 0.000101f, -0.000222f, 0.004703f, 0.001357f, -0.005418f, 0.002846f, -0.002148f, 0.001432f, 0.000684f, 0.005554f, -0.000307f, 0.002896f, 0.005004f, 0.005227f, 0.002385f, -0.001384f, 0.001955f, -0.000563f, -0.008171f, 0.000004f, 0.002464f, 0.006437f, 0.000576f, 0.001505f, -0.005241f, -0.001160f, -0.007098f, 0.002871f, 0.008406f, 0.002696f, -0.004855f, -0.001136f, 0.002215f, 0.005813f, 0.003323f, -0.000809f, 0.001199f, 0.004192f, 0.005124f, -0.001459f, -0.007144f, 0.002138f, -0.003950f, -0.006108f, -0.004086f, -0.004041f, 0.002577f, 0.000772f, 0.012974f, 0.005365f, -0.004464f, -0.000587f, 0.005024f, -0.006838f, 0.007756f, -0.002033f, 0.006952f, 0.009475f, 0.006578f, -0.000803f, 0.010142f, 0.002327f, 0.003081f, -0.001326f, 0.004103f, 0.004902f, 0.000519f, -0.003987f, 0.005284f, 0.001115f, 0.000770f, -0.008525f, 0.000422f, -0.000080f, -0.002734f, -0.001684f, 0.000345f, -0.008408f, 0.005775f, 0.002335f, 0.000324f, 0.000132f, -0.002551f, -0.004071f, 0.005757f, -0.009667f, -0.003850f, -0.005482f, 0.004921f, -0.012225f, 0.001562f, -0.001375f, -0.007039f, -0.001853f, -0.000130f, -0.000664f, -0.005887f, 0.000240f, 0.002980f, 0.000387f, 0.004848f, -0.001712f, 0.001899f, -0.000063f, 0.003994f, 0.001717f, -0.000130f, -0.004510f, 0.000158f, -0.006120f, -0.003393f, 0.000328f, 0.008972f, 0.009428f, -0.006179f, -0.007165f, -0.015851f, -0.002465f, 0.004229f, 0.005914f, -0.006652f, -0.008572f, -0.000435f, 0.000033f, -0.000271f, 0.005727f, -0.011044f, -0.001203f, 0.014894f, -0.006749f, -0.003868f, 0.001035f, 0.011877f, 0.001289f, -0.011919f, -0.001228f, 0.013708f, 0.002921f, -0.003486f, 0.000635f, -0.005951f, -0.000805f, -0.003318f, -0.006509f, 0.002628f, -0.007114f, 0.001727f, -0.005362f, 0.009471f, -0.005142f, 0.001633f, 0.004892f, -0.005740f, -0.010971f, 0.000797f, 0.010417f, -0.003915f, 0.006105f, 0.000133f, 0.003597f, -0.002115f, 0.007690f, -0.001627f, 0.003745f, -0.005646f, 0.013758f, -0.002263f, 0.000369f, 0.001824f, 0.008075f, -0.006255f, 0.002656f, 0.007147f, -0.001544f, 0.007176f, 0.012546f, 0.002785f, 0.000636f, 0.000730f, -0.000697f, -0.003208f, 0.005132f, -0.001815f, 0.002570f, -0.009167f, -0.000870f, 0.002715f, 0.003009f, -0.001866f, 0.001109f, 0.007569f, -0.000578f, 0.002383f, -0.005877f, 0.005326f, 0.006947f, -0.001125f, 0.001869f, 0.012038f, 0.005624f, -0.013325f, 0.008776f, 0.004498f, 0.000897f, 0.004800f, -0.001585f, 0.002105f, 0.011248f, -0.001078f, -0.000800f, -0.004009f, -0.011673f, 0.001275f, 0.005552f, -0.008931f, -0.002608f, -0.001055f, -0.000301f, -0.006425f, 0.000824f, -0.005251f, -0.003768f, -0.005808f, -0.010676f, -0.001086f, 0.001889f, 0.010667f, 0.006748f, 0.004821f, -0.001972f, -0.005925f, -0.011727f, -0.010381f, -0.008597f, -0.001300f, 0.012176f, 0.007544f, 0.001762f, 0.002497f, -0.008000f, 0.012009f, 0.007130f, -0.007156f, -0.002150f, -0.000764f, 0.000590f, 0.001111f, 0.001974f, -0.001588f, -0.009047f, -0.004975f, 0.004498f, 0.001118f, 0.005020f, -0.000534f, -0.012594f, -0.000106f, 0.003448f, -0.000258f, -0.009741f, 0.001826f, -0.002929f, 0.000001f, 0.000329f, 0.005929f, 0.003431f, -0.008941f, -0.000711f, 0.002128f, 0.005060f, 0.004142f, -0.009161f, 0.003866f, -0.002451f, -0.004620f, 0.007564f, 0.007139f, 0.000552f, -0.002609f, 0.003203f, 0.006667f, -0.009357f, -0.004222f, -0.004563f, 0.000097f, 0.001348f, 0.003860f, -0.000735f, 0.002112f, 0.004722f, -0.000265f, 0.000106f, 0.005015f, -0.003486f, 0.001821f, 0.003870f, 0.002921f, 0.001055f, 0.000050f, 0.002300f, 0.007305f, 0.002050f, 0.000763f, 0.011054f, -0.000575f, 0.002428f, -0.000821f, 0.005463f, -0.005524f, 0.000909f, 0.001698f, -0.002707f, 0.000054f, 0.002497f, -0.003450f, 0.000356f, -0.001059f, 0.008262f, -0.000077f, -0.005819f, 0.000819f, 0.001014f, -0.001428f, 0.000713f, 0.010290f, 0.005170f, 0.000034f, 0.003220f, 0.009362f, -0.003145f, 0.006682f, 0.000623f, -0.013118f, 0.011750f, -0.010882f, 0.000482f, -0.003385f, -0.001898f, 0.007583f, -0.000567f, 0.014037f, -0.001111f, -0.002485f, 0.003427f, -0.005731f, -0.001110f, 0.006962f, 0.015129f, -0.004305f, 0.001301f, -0.001246f, 0.000739f, 0.010259f, -0.002561f, 0.000654f, 0.008857f, 0.000442f, 0.000122f, 0.001348f, -0.011377f, -0.003245f, 0.007883f, -0.009363f, 0.001950f, 0.004115f, -0.001418f, -0.002083f, 0.007422f, -0.010279f, -0.000831f, 0.000200f, -0.014958f, 0.008356f, -0.003313f, 0.004101f, -0.002165f, 0.006419f, 0.005364f, -0.001323f, -0.001214f, 0.001968f, 0.001972f, -0.001692f, 0.006306f, -0.010073f, -0.009092f, 0.003357f, -0.002924f, -0.002734f, 0.007858f, 0.004615f, 0.002030f, -0.001341f, 0.001165f, -0.005029f, -0.003693f, -0.005704f, 0.010900f, 0.005705f, 0.001857f, 0.000356f, 0.000891f, -0.000107f, -0.009311f, -0.008114f, 0.006871f, -0.006761f, -0.002982f, 0.012341f, 0.004613f, -0.001460f, 0.007027f, 0.008674f, 0.003347f, -0.002387f, -0.005493f, -0.004517f, 0.004632f, -0.003856f, 0.002001f, -0.004549f, 0.004441f, 0.004603f, 0.001619f, 0.003424f, -0.005707f, -0.008384f, 0.007079f, 0.002317f, 0.010886f, 0.004644f, 0.010145f, 0.003436f, 0.009793f, 0.000572f, -0.001241f, 0.005990f, -0.005219f, -0.000574f, -0.005795f, 0.003748f, -0.000879f, -0.002592f, 0.006157f, 0.003171f, 0.001698f, -0.003273f, -0.000610f, -0.006474f, 0.012043f, 0.000168f, -0.006557f, 0.004708f };
static const float seqdense_layer1_biases[64] = { 0.421799f, 0.288552f, -0.137635f, 0.196519f, -0.132839f, -0.121299f, -0.059756f, 0.363775f, -0.129188f, -0.680920f, -0.164125f, -0.302172f, 0.070709f, -0.119801f, -0.405440f, -0.031592f, 0.540907f, 0.146189f, -0.118455f, -0.072007f, 0.266807f, -0.033105f, -0.420492f, -0.004323f, -0.178950f, -0.073933f, -0.410174f, -0.099868f, -0.170176f, 0.218833f, 0.030299f, -0.147409f, -0.057346f, 0.304548f, 0.405837f, 0.180123f, 0.177729f, -0.068220f, -0.003094f, 0.044320f, -0.232725f, -0.069480f, -0.207141f, 0.008866f, 0.221822f, 0.194324f, 0.079688f, -0.032732f, 0.079026f, -0.059453f, 0.024514f, -0.072402f, -0.035549f, -0.219152f, 0.026769f, -0.147213f, 0.286518f, -0.466413f, -0.205322f, 0.054320f, 0.044355f, -0.074527f, -0.110796f, 0.197023f };
static const float seqdense_layer2_weights[4096] = { 0.011240f, 0.001379f, -0.004362f, -0.001616f, -0.002613f, 0.002877f, 0.005418f, 0.001559f, -0.012173f, 0.008308f, 0.012983f, -0.009378f, 0.011575f, 0.011111f, 0.022292f, -0.004184f, 0.012640f, -0.008302f, -0.010897f, -0.000959f, -0.007947f, -0.000374f, -0.008335f, -0.022482f, 0.003622f, -0.015875f, 0.001370f, -0.005547f, -0.000911f, 0.009113f, -0.007637f, 0.006067f, 0.020276f, 0.021811f, -0.039375f, 0.022204f, -0.001032f, 0.023408f, -0.017725f, -0.000284f, -0.003952f, 0.034869f, -0.007328f, -0.012963f, 0.009187f, 0.021380f, -0.036438f, -0.009346f, -0.013935f, -0.016636f, -0.016569f, 0.001405f, -0.005086f, 0.003566f, -0.008474f, 0.020076f, -0.005097f, 0.002096f, 0.016621f, -0.012010f, 0.004647f, -0.008163f, 0.006947f, 0.018715f, 0.021401f, 0.004383f, -0.023546f, -0.033834f, 0.004332f, -0.000587f, -0.003361f, 0.006619f, -0.004799f, -0.012743f, -0.006333f, -0.008998f, -0.016287f, -0.002129f, -0.012606f, 0.010308f, 0.012504f, -0.009922f, -0.016390f, -0.032282f, 0.004907f, 0.004588f, -0.012976f, -0.022926f, 0.014975f, -0.022756f, -0.023584f, -0.015550f, 0.005485f, 0.006193f, -0.020342f, 0.011481f, -0.000345f, -0.017724f, -0.006643f, -0.014434f, 0.001515f, -0.012361f, 0.010149f, -0.014025f, -0.011676f, 0.005853f, 0.005684f, -0.023181f, 0.004271f, -0.014004f, 0.010499f, -0.002790f, -0.001320f, -0.005708f, -0.023920f, -0.005510f, -0.023054f, 0.010011f, 0.013340f, -0.019849f, 0.003844f, 0.019432f, -0.001724f, -0.005309f, -0.002262f, -0.007673f, 0.017711f, 0.022058f, 0.003070f, -0.007475f, -0.008966f, 0.006824f, -0.007731f, 0.010373f, 0.008174f, 0.004182f, -0.005439f, -0.010120f, 0.027008f, 0.002011f, -0.000635f, 0.008247f, 0.030781f, 0.003495f, -0.019893f, -0.004436f, 0.045069f, -0.014562f, 0.007430f, 0.006880f, -0.002774f, 0.012222f, 0.002969f, 0.004565f, 0.013654f, 0.012812f, -0.033695f, -0.011618f, -0.017463f, -0.025888f, -0.012419f, -0.004063f, 0.011449f, -0.011051f, 0.015230f, 0.003652f, 0.011540f, -0.014870f, 0.002818f, -0.021969f, 0.021023f, -0.016349f, 0.023125f, -0.003231f, -0.004038f, 0.018814f, -0.001219f, 0.002983f, 0.009327f, 0.004137f, 0.005694f, -0.000094f, 0.006492f, -0.015132f, 0.013792f, -0.000431f, -0.003958f, 0.008779f, 0.000196f, -0.026565f, -0.012768f, 0.012763f, -0.000693f, 0.011981f, -0.011188f, -0.004583f, 0.002417f, 0.014969f, 0.007446f, 0.005534f, 0.006048f, -0.005231f, -0.003748f, -0.003219f, -0.013666f, 0.005043f, 0.004812f, -0.007323f, 0.028762f, 0.008108f, -0.010591f, -0.002708f, -0.000172f, 0.008614f, -0.019899f, -0.011909f, 0.008386f, 0.011919f, 0.011687f, 0.023196f, 0.004867f, -0.008247f, 0.005743f, 0.016209f, 0.007052f, -0.013569f, -0.010420f, -0.021495f, 0.004181f, -0.013579f, -0.034280f, 0.016884f, 0.005076f, -0.018622f, -0.004981f, 0.014982f, 0.022151f, -0.019480f, -0.015943f, 0.016536f, -0.009664f, 0.007184f, 0.026247f, -0.006167f, -0.010948f, -0.009112f, 0.024708f, -0.014147f, -0.010570f, 0.002623f, -0.016771f, -0.016848f, -0.011635f, 0.027880f, -0.009416f, 0.015284f, -0.001391f, 0.007572f, -0.023563f, -0.027419f, -0.009061f, -0.013932f, 0.001403f, -0.002731f, 0.012020f, 0.006613f, 0.008348f, 0.011543f, 0.000125f, -0.038631f, -0.008930f, 0.010617f, 0.001672f, -0.001575f, -0.019635f, -0.006804f, 0.014985f, 0.010336f, -0.016756f, 0.016068f, 0.004243f, 0.011492f, 0.014029f, -0.009020f, 0.004824f, 0.000262f, -0.025840f, 0.008231f, 0.031223f, -0.019196f, 0.017587f, 0.012003f, 0.004612f, 0.029190f, -0.003123f, 0.039663f, 0.000682f, -0.005813f, -0.019906f, -0.005780f, 0.012647f, -0.020913f, -0.000965f, -0.001185f, 0.003768f, 0.005583f, -0.003359f, -0.002798f, -0.017095f, 0.000439f, -0.012658f, -0.018751f, 0.014944f, -0.002018f, -0.008660f, 0.004466f, -0.006507f, -0.030789f, -0.008874f, -0.017178f, -0.003883f, 0.007009f, -0.012743f, -0.005164f, -0.015658f, -0.006732f, 0.006690f, 0.002145f, -0.002591f, -0.009937f, -0.000962f, -0.010679f, -0.004129f, -0.000652f, -0.003508f, -0.001599f, -0.023841f, -0.009860f, -0.013374f, -0.009905f, 0.006143f, 0.039453f, 0.010642f, -0.010584f, -0.000215f, -0.012151f, -0.001171f, 0.016590f, -0.015301f, 0.022657f, 0.013084f, 0.009794f, -0.002680f, 0.031448f, -0.001540f, -0.003768f, 0.015965f, 0.008647f, 0.021382f, -0.004012f, 0.001997f, 0.000689f, -0.001402f, 0.003625f, -0.023647f, -0.016158f, 0.013232f, -0.011734f, 0.009420f, -0.004623f, -0.013846f, 0.009618f, 0.006495f, -0.014323f, -0.038752f, -0.004941f, 0.016890f, 0.025537f, 0.007655f, -0.008568f, -0.018030f, -0.004614f, -0.012452f, -0.002536f, -0.011823f, 0.029234f, 0.007955f, 0.008825f, 0.016365f, 0.011291f, 0.014983f, -0.003522f, -0.007123f, -0.010517f, 0.005745f, -0.009851f, 0.028136f, 0.012053f, -0.000745f, 0.007907f, 0.025686f, -0.018027f, 0.004658f, -0.002947f, 0.011183f, -0.019852f, -0.015840f, -0.033372f, 0.009679f, -0.007257f, -0.008107f, 0.007606f, -0.000922f, -0.006686f, -0.008111f, -0.015281f, -0.002724f, 0.005866f, -0.019849f, -0.026144f, 0.008855f, 0.009854f, -0.019987f, -0.028860f, -0.032835f, 0.010189f, 0.007956f, 0.009643f, 0.021488f, 0.023296f, -0.008094f, -0.005126f, 0.020504f, -0.007533f, -0.002980f, 0.004345f, -0.000382f, -0.004933f, -0.014837f, 0.004867f, -0.014483f, -0.031951f, -0.004019f, -0.010603f, -0.008706f, 0.012143f, 0.010589f, -0.025455f, 0.013879f, 0.017382f, 0.004829f, -0.008508f, 0.012553f, -0.005825f, -0.004809f, -0.029565f, 0.004949f, 0.011674f, 0.027436f, 0.037437f, -0.023420f, 0.000289f, -0.004454f, 0.007104f, 0.001783f, -0.008892f, -0.007488f, -0.014774f, -0.019040f, -0.025660f, 0.019182f, 0.015267f, 0.008623f, 0.011766f, 0.002356f, 0.036344f, -0.018800f, -0.001342f, 0.006997f, 0.019477f, 0.003594f, 0.014361f, 0.015189f, 0.006336f, 0.015296f, 0.006758f, 0.005759f, 0.012700f, 0.013843f, 0.021574f, 0.010000f, 0.018748f, 0.018106f, -0.015305f, 0.035056f, -0.001893f, 0.009084f, 0.004279f, 0.009224f, -0.000416f, -0.005430f, 0.007112f, 0.012063f, -0.018855f, 0.002924f, -0.020085f, 0.017493f, 0.000611f, -0.020416f, -0.020375f, -0.005998f, 0.001210f, 0.011607f, 0.004748f, -0.012863f, 0.011419f, -0.007684f, 0.011797f, -0.006704f, -0.019637f, -0.002992f, 0.006945f, 0.012688f, -0.029471f, 0.001483f, -0.014298f, 0.002316f, 0.003886f, 0.023791f, -0.022248f, -0.009964f, 0.027761f, 0.018254f, 0.014018f, 0.003778f, 0.009069f, 0.021229f, 0.007239f, 0.005012f, 0.008709f, -0.003570f, 0.027028f, 0.010797f, 0.028424f, -0.031896f, 0.002824f, 0.014062f, -0.005409f, 0.020576f, -0.016515f, -0.006096f, 0.010276f, -0.008688f, 0.008640f, 0.026612f, -0.016443f, -0.005160f, -0.015451f, -0.015196f, -0.009290f, -0.018541f, 0.005961f, -0.014215f, 0.017782f, -0.001787f, -0.016887f, 0.002799f, -0.017093f, 0.013488f, -0.005578f, 0.022314f, 0.013744f, 0.015522f, 0.015265f, -0.010309f, -0.013104f, 0.010906f, -0.009807f, -0.027517f, -0.027956f, 0.005061f, -0.011687f, -0.011306f, 0.014373f, -0.000666f, 0.011601f, 0.002342f, 0.006759f, -0.005075f, -0.009590f, 0.000144f, 0.010210f, -0.000366f, 0.012068f, 0.001303f, 0.011086f, 0.011282f, 0.001273f, 0.000179f, 0.007733f, 0.007169f, -0.014892f, -0.010916f, 0.014770f, 0.012108f, -0.030863f, 0.003555f, -0.015760f, 0.016767f, -0.005061f, 0.016805f, 0.005111f, -0.024101f, -0.019549f, -0.012226f, -0.010170f, 0.002688f, 0.014440f, -0.026358f, 0.011826f, -0.015980f, -0.012284f, 0.001145f, 0.000624f, -0.000329f, -0.004009f, -0.010091f, 0.014830f, 0.020136f, 0.000118f, 0.020460f, -0.005495f, 0.007907f, 0.010601f, -0.003457f, 0.010236f, 0.000187f, 0.004190f, 0.016478f, -0.009955f, 0.017234f, -0.006611f, 0.013525f, -0.014771f, -0.008563f, 0.008154f, -0.013704f, 0.024852f, 0.014386f, -0.000542f, 0.008205f, 0.016388f, 0.009390f, 0.016006f, 0.021041f, -0.009191f, 0.012437f, 0.007036f, 0.010663f, 0.018464f, -0.005643f, -0.000288f, 0.009955f, -0.021391f, 0.014548f, 0.004268f, 0.014193f, -0.010812f, -0.009790f, -0.009942f, 0.002193f, -0.004967f, -0.026860f, -0.015025f, -0.014478f, 0.004393f, -0.001816f, -0.013248f, 0.000485f, -0.031122f, -0.002090f, -0.009995f, -0.010581f, -0.001619f, -0.000629f, 0.038457f, -0.009560f, -0.006882f, 0.025752f, -0.033354f, -0.012013f, 0.005760f, -0.003233f, -0.008561f, 0.009122f, -0.016383f, -0.019544f, 0.000898f, 0.013033f, 0.000824f, -0.005508f, 0.014404f, -0.012928f, 0.018726f, -0.024431f, 0.001314f, -0.019492f, 0.009547f, 0.000646f, -0.010121f, -0.019755f, 0.011687f, 0.004914f, 0.004663f, -0.007727f, -0.016300f, 0.004634f, -0.000272f, 0.003475f, 0.002447f, -0.022351f, 0.006386f, -0.013942f, 0.002522f, 0.015142f, -0.001920f, -0.002383f, 0.000731f, 0.000566f, 0.003492f, 0.005032f, 0.009090f, 0.003863f, -0.010151f, 0.020661f, -0.002060f, 0.005074f, 0.008946f, -0.002812f, -0.020528f, -0.001645f, -0.007230f, 0.005165f, 0.009219f, -0.014281f, 0.015756f, 0.005204f, -0.002767f, 0.003199f, 0.008498f, -0.012351f, -0.003181f, 0.002018f, -0.003274f, 0.003879f, 0.009447f, 0.004996f, 0.007775f, 0.010087f, -0.004191f, 0.003752f, 0.001320f, -0.016712f, 0.002386f, 0.001179f, 0.013581f, -0.009375f, -0.022569f, -0.004824f, 0.014017f, -0.003432f, -0.006306f, -0.016004f, -0.012623f, 0.001946f, -0.002875f, -0.012886f, -0.002704f, -0.027690f, 0.012764f, 0.002643f, -0.019440f, 0.023237f, 0.007529f, 0.008690f, 0.017934f, 0.007035f, -0.000757f, -0.005605f, 0.014557f, 0.004039f, 0.000885f, 0.006117f, 0.034387f, -0.013048f, 0.005349f, -0.003462f, -0.011890f, -0.005033f, 0.017302f, 0.019232f, 0.035909f, 0.004277f, 0.009834f, 0.009687f, 0.002007f, -0.002412f, -0.023440f, 0.013007f, -0.004432f, -0.035424f, -0.007409f, 0.004355f, -0.014929f, 0.023197f, -0.002867f, 0.001365f, 0.010500f, 0.001650f, -0.028962f, 0.002192f, -0.000561f, 0.015575f, -0.004722f, -0.029154f, -0.025891f, 0.005621f, 0.017424f, -0.006903f, -0.014717f, -0.014461f, -0.000532f, -0.000558f, 0.004859f, 0.004106f, -0.013492f, -0.013106f, 0.011200f, 0.008387f, -0.005663f, 0.000360f, 0.005368f, 0.006992f, -0.000385f, -0.015184f, -0.011042f, 0.007191f, -0.022000f, -0.001210f, 0.008190f, 0.004879f, 0.007539f, 0.015306f, 0.006074f, 0.004661f, 0.016060f, 0.000587f, -0.011049f, -0.013623f, -0.008683f, -0.007478f, 0.011015f, 0.006678f, 0.004853f, -0.024206f, -0.007687f, 0.013671f, 0.003384f, 0.000178f, 0.014731f, -0.001625f, 0.009532f, 0.012548f, -0.009170f, 0.019790f, -0.008874f, 0.012655f, -0.027328f, -0.007681f, 0.021310f, -0.000374f, 0.010333f, 0.017667f, 0.011411f, -0.013647f, 0.005031f, -0.001143f, 0.012648f, -0.022250f, -0.012085f, -0.001526f, -0.015233f, 0.008113f, -0.012888f, -0.005882f, 0.024022f, 0.011098f, 0.017742f, 0.006591f, 0.017852f, -0.006529f, -0.000136f, -0.002425f, -0.011571f, -0.010703f, 0.030625f, -0.006456f, -0.012023f, 0.016602f, -0.008038f, -0.004919f, 0.015470f, 0.011022f, 0.014549f, -0.033197f, -0.007471f, 0.012936f, -0.005329f, -0.005057f, 0.010159f, -0.021525f, 0.018401f, -0.003602f, 0.003470f, 0.000541f, -0.012351f, 0.010522f, 0.024042f, -0.003443f, -0.003419f, 0.009694f, 0.009866f, 0.026995f, -0.000617f, 0.003894f, -0.004342f, -0.022648f, -0.013803f, 0.020244f, -0.019431f, -0.015699f, -0.016322f, 0.021002f, 0.023587f, -0.017237f, 0.014800f, 0.005424f, -0.007966f, -0.011313f, -0.018805f, -0.012144f, -0.021151f, 0.019084f, -0.001188f, -0.012559f, 0.009258f, -0.007644f, -0.000038f, -0.012568f, -0.006855f, 0.001637f, -0.003570f, 0.008519f, -0.015349f, 0.023942f, 0.010159f, -0.018377f, -0.010074f, 0.006434f, -0.003395f, 0.000897f, -0.016668f, 0.002006f, -0.003255f, 0.009635f, -0.006352f, 0.003974f, 0.004461f, -0.006904f, -0.006436f, -0.010236f, -0.000620f, -0.002804f, -0.013645f, 0.001536f, -0.022446f, -0.014264f, -0.001373f, 0.002877f, 0.025049f, 0.012248f, -0.013989f, -0.005375f, 0.023461f, 0.006846f, -0.002592f, 0.025751f, 0.007132f, -0.016347f, 0.031154f, 0.000039f, 0.011915f, 0.004953f, 0.002606f, 0.005157f, 0.012165f, -0.010947f, 0.002277f, -0.017484f, 0.021227f, 0.018716f, -0.008685f, 0.004848f, 0.003362f, -0.003321f, 0.017254f, 0.003074f, 0.017061f, -0.016997f, -0.015727f, -0.008319f, 0.003161f, -0.001328f, 0.019180f, 0.010180f, 0.012254f, -0.017227f, -0.003812f, -0.012417f, 0.015394f, 0.011294f, -0.019851f, 0.009864f, 0.006799f, 0.010924f, -0.020074f, -0.012559f, 0.021166f, -0.006614f, 0.034138f, -0.015674f, 0.003144f, -0.004462f, 0.000750f, -0.004197f, 0.009909f, -0.001869f, -0.006795f, -0.001277f, -0.006146f, -0.006394f, -0.000480f, 0.002676f, 0.006628f, -0.018245f, 0.009302f, -0.018083f, 0.010223f, 0.005651f, 0.001264f, 0.003297f, -0.003531f, -0.001572f, 0.003210f, -0.005949f, 0.024062f, 0.000411f, -0.024897f, 0.010991f, 0.001999f, -0.008143f, 0.018644f, -0.027312f, 0.006580f, -0.016372f, 0.019204f, 0.020957f, 0.009174f, -0.019752f, 0.002148f, 0.009187f, 0.005775f, -0.006668f, 0.003383f, 0.000872f, -0.022024f, 0.004480f, -0.011989f, -0.005442f, -0.002138f, 0.006258f, 0.009185f, -0.008210f, -0.001079f, 0.003371f, 0.002577f, -0.016624f, -0.029540f, -0.007278f, -0.022820f, -0.009897f, -0.011190f, 0.014752f, -0.010808f, 0.002496f, -0.019987f, 0.007903f, 0.000203f, 0.018982f, -0.022168f, 0.001831f, 0.000560f, 0.017395f, -0.009921f, 0.006760f, -0.013079f, -0.011523f, -0.006396f, 0.012252f, 0.004923f, -0.006300f, 0.020710f, 0.003872f, 0.005060f, 0.015890f, 0.011220f, 0.014570f, -0.004410f, -0.006531f, 0.030535f, -0.018744f, -0.027878f, -0.012645f, -0.020348f, -0.001866f, 0.011567f, -0.001787f, -0.024698f, 0.001895f, -0.012371f, 0.018893f, 0.004463f, 0.004186f, 0.000101f, 0.005353f, 0.004288f, 0.007412f, -0.013480f, -0.004722f, 0.002508f, 0.006339f, 0.005542f, 0.010910f, 0.035230f, -0.007152f, 0.002457f, 0.008853f, 0.016890f, -0.016822f, 0.010557f, -0.041001f, -0.005102f, 0.006200f, -0.022772f, -0.007046f, 0.024582f, 0.006178f, 0.012436f, 0.003167f, 0.010274f, 0.002281f, -0.012869f, -0.002852f, 0.007080f, -0.010188f, 0.003387f, 0.028496f, -0.002241f, -0.019292f, -0.002940f, -0.005874f, 0.017297f, -0.002359f, 0.016682f, 0.009379f, 0.013088f, -0.000189f, 0.017747f, -0.011674f, -0.003177f, -0.017332f, -0.019127f, -0.005133f, 0.015965f, 0.031379f, -0.020294f, 0.001737f, 0.008329f, -0.020170f, 0.009323f, 0.000707f, 0.006086f, -0.008145f, 0.003980f, 0.005682f, 0.018424f, -0.029533f, 0.016530f, -0.000641f, 0.004195f, -0.004309f, -0.017334f, 0.004297f, -0.010227f, -0.000092f, -0.014470f, -0.007331f, 0.010113f, -0.014348f, -0.001188f, -0.002813f, -0.003581f, -0.003521f, 0.008439f, -0.001296f, 0.014909f, -0.003883f, 0.017476f, 0.023145f, -0.021159f, 0.006671f, 0.002092f, -0.011891f, 0.009374f, 0.013242f, 0.003479f, -0.007938f, 0.012037f, 0.018611f, -0.023909f, 0.014014f, -0.000568f, 0.009926f, 0.000267f, -0.011514f, 0.001840f, 0.046331f, -0.005328f, -0.009440f, -0.002468f, 0.005643f, 0.020760f, 0.007171f, 0.018569f, 0.008512f, -0.000840f, -0.007234f, -0.020266f, -0.016145f, 0.009831f, 0.008828f, -0.011221f, -0.016179f, 0.003114f, 0.024877f, 0.032972f, -0.005610f, 0.009544f, 0.002624f, -0.001916f, 0.024502f, 0.021620f, -0.009942f, -0.023217f, 0.017166f, 0.003098f, -0.005388f, 0.005596f, 0.002437f, 0.006879f, 0.008868f, -0.017880f, -0.006142f, -0.005000f, 0.000125f, 0.017971f, -0.008255f, 0.007776f, -0.010087f, 0.019511f, -0.014859f, -0.000954f, -0.005732f, 0.019479f, -0.002934f, 0.001193f, 0.003511f, -0.028216f, -0.010339f, -0.010868f, -0.005506f, -0.047695f, -0.002840f, -0.024045f, -0.012978f, -0.015700f, -0.018085f, -0.016303f, -0.004357f, -0.003550f, -0.019356f, -0.012889f, -0.006488f, -0.019564f, -0.010842f, -0.000450f, -0.021020f, 0.000713f, -0.026566f, 0.012007f, 0.022678f, -0.012265f, 0.007386f, -0.027344f, -0.001655f, 0.008514f, 0.014030f, 0.008368f, -0.003127f, -0.021774f, 0.015859f, 0.029402f, 0.025974f, -0.015950f, 0.007039f, -0.003095f, 0.006221f, -0.012661f, 0.006930f, 0.015848f, 0.001747f, 0.009262f, -0.016531f, 0.013106f, -0.005410f, 0.007626f, -0.001814f, -0.015343f, -0.000514f, 0.001668f, -0.020951f, 0.014329f, 0.005892f, -0.014319f, 0.004956f, -0.006542f, -0.018132f, 0.015579f, 0.011017f, 0.018040f, 0.008749f, -0.012775f, 0.008487f, 0.005397f, -0.009888f, -0.026322f, -0.007403f, -0.011260f, 0.019169f, 0.011799f, -0.003517f, 0.007627f, 0.008706f, 0.000239f, 0.007731f, -0.002528f, 0.015275f, 0.004749f, 0.001262f, 0.006841f, -0.006983f, -0.015784f, -0.010399f, 0.026022f, 0.002085f, 0.010101f, -0.007941f, -0.004018f, 0.003055f, 0.002485f, 0.008464f, -0.001581f, -0.008138f, -0.008260f, -0.008503f, -0.013413f, 0.011167f, -0.004982f, -0.002919f, 0.000357f, -0.002040f, 0.014355f, -0.028164f, -0.018452f, -0.027784f, 0.007616f, 0.022195f, 0.014742f, 0.010202f, 0.007309f, -0.004789f, 0.002689f, 0.018568f, -0.002515f, -0.010333f, -0.011978f, -0.009990f, 0.008279f, 0.009739f, -0.020366f, 0.009410f, -0.013260f, 0.001738f, 0.009564f, 0.001732f, 0.015917f, 0.020628f, 0.011067f, 0.008562f, 0.005175f, 0.014002f, -0.011046f, -0.011361f, 0.001836f, -0.003783f, 0.005252f, 0.000425f, 0.013236f, -0.000658f, 0.010476f, -0.012410f, -0.013321f, 0.003262f, -0.004988f, -0.009715f, -0.009019f, -0.005606f, -0.021268f, -0.002070f, 0.006430f, -0.008146f, 0.024435f, 0.003293f, -0.006552f, 0.004441f, 0.003490f, 0.003007f, 0.023169f, -0.004728f, -0.018960f, 0.000396f, -0.010667f, -0.003697f, 0.016342f, -0.006471f, -0.000561f, 0.008657f, 0.011640f, -0.006956f, -0.006659f, -0.000055f, -0.010127f, -0.002452f, 0.008842f, -0.003430f, -0.000291f, 0.006302f, 0.001732f, 0.032149f, 0.000193f, -0.009239f, -0.003946f, -0.017196f, 0.011096f, -0.000681f, 0.015795f, 0.003895f, 0.030343f, 0.002726f, -0.005769f, 0.040750f, 0.014566f, -0.004711f, 0.005573f, -0.023162f, -0.023855f, -0.008536f, -0.001988f, -0.005051f, -0.009154f, -0.008900f, 0.021563f, -0.001906f, 0.007735f, 0.008579f, -0.003165f, 0.000143f, -0.002402f, -0.000143f, 0.013784f, -0.006173f, -0.002464f, -0.012156f, 0.007050f, -0.021804f, -0.009943f, 0.033590f, 0.004205f, -0.000590f, -0.006917f, -0.019614f, -0.015897f, 0.008159f, -0.006563f, 0.017047f, -0.017969f, -0.012071f, 0.029318f, -0.005347f, -0.002061f, -0.015096f, -0.024083f, -0.010006f, -0.003770f, 0.003809f, 0.018700f, 0.017471f, 0.007083f, -0.001957f, -0.015453f, -0.017427f, -0.011914f, 0.026932f, -0.005143f, -0.011716f, 0.017107f, -0.000184f, -0.020592f, -0.012576f, 0.014771f, 0.003009f, -0.001033f, -0.008600f, 0.007700f, 0.022626f, 0.022099f, -0.026425f, -0.020492f, 0.009953f, 0.002220f, -0.001767f, -0.021970f, -0.004300f, 0.002252f, 0.008140f, 0.001520f, 0.004632f, -0.009238f, 0.003097f, 0.012918f, -0.012588f, 0.004899f, -0.000671f, -0.005032f, 0.015483f, 0.017160f, 0.005247f, 0.040533f, -0.009531f, -0.006486f, -0.000074f, -0.005913f, 0.005889f, 0.000882f, -0.002384f, 0.025302f, 0.028142f, 0.005545f, 0.035818f, 0.017706f, 0.016564f, -0.022903f, -0.011403f, 0.007505f, 0.005230f, -0.012171f, -0.027333f, 0.005660f, -0.024725f, -0.006826f, -0.012273f, 0.014262f, -0.003796f, 0.018021f, -0.012601f, 0.017709f, -0.024963f, 0.001584f, 0.013578f, -0.012673f, -0.019501f, 0.011659f, 0.002486f, -0.012317f, 0.002428f, 0.000554f, 0.006905f, 0.003212f, 0.005406f, 0.006713f, -0.009617f, -0.018107f, -0.009395f, -0.006980f, 0.009168f, -0.004505f, -0.002253f, 0.021793f, -0.005443f, -0.002447f, -0.010512f, 0.012769f, 0.027147f, 0.007202f, -0.019969f, -0.016778f, -0.020301f, 0.017463f, -0.005622f, 0.045474f, 0.008181f, 0.017573f, 0.002880f, -0.001853f, -0.004696f, -0.001080f, -0.010888f, -0.014865f, 0.007632f, -0.005025f, -0.004779f, -0.003464f, 0.005892f, 0.018609f, -0.010378f, -0.017093f, -0.008750f, 0.016119f, -0.003894f, 0.003749f, 0.010860f, -0.018920f, -0.014552f, 0.004490f, 0.000411f, -0.030311f, 0.033269f, 0.014097f, -0.013116f, 0.001442f, 0.008156f, -0.000914f, -0.016373f, 0.028078f, 0.002174f, -0.000284f, 0.003066f, -0.001257f, 0.016448f, 0.021040f, -0.002065f, 0.013597f, 0.024262f, 0.001315f, 0.002501f, 0.005242f, -0.017007f, 0.012005f, 0.003501f, -0.020541f, 0.000697f, -0.003420f, -0.008958f, 0.012179f, 0.003650f, -0.005287f, -0.009366f, 0.009693f, -0.008354f, 0.016988f, 0.009035f, 0.008689f, 0.004279f, -0.000277f, -0.008590f, -0.005862f, -0.008178f, 0.014792f, 0.023512f, 0.030879f, -0.000563f, -0.017024f, 0.005107f, 0.021616f, 0.005724f, -0.001163f, -0.038962f, -0.030093f, -0.001423f, 0.019642f, 0.005157f, 0.003861f, 0.000526f, 0.009105f, 0.014256f, -0.018291f, 0.007602f, -0.003161f, 0.029036f, -0.018138f, -0.000237f, 0.017814f, -0.027407f, -0.018306f, -0.004570f, -0.013247f, -0.023247f, -0.014273f, 0.014779f, 0.006766f, 0.021212f, -0.001166f, 0.016012f, -0.004731f, -0.019541f, -0.004357f, -0.016273f, -0.020084f, -0.006113f, -0.019394f, -0.024065f, 0.014456f, -0.009750f, -0.012847f, -0.024668f, -0.006888f, -0.004149f, -0.013770f, 0.024823f, 0.012397f, 0.009262f, -0.012904f, 0.001010f, 0.010478f, 0.032657f, 0.017852f, -0.021408f, 0.021706f, -0.008919f, 0.005486f, 0.010172f, -0.007095f, 0.006730f, 0.001409f, 0.008113f, -0.003437f, -0.022300f, 0.009348f, 0.015174f, -0.005261f, -0.013618f, -0.010365f, -0.010632f, 0.014509f, -0.024606f, 0.003959f, -0.002415f, 0.004159f, -0.014823f, -0.035976f, 0.011406f, 0.002041f, -0.006929f, 0.017063f, 0.000468f, 0.000444f, -0.019036f, -0.000522f, 0.009448f, 0.003147f, 0.018121f, -0.005200f, 0.008258f, 0.003477f, -0.024023f, 0.014902f, -0.008069f, 0.010031f, 0.011950f, -0.011343f, 0.018736f, -0.010662f, -0.000084f, 0.018876f, -0.005805f, -0.019447f, -0.014689f, 0.005734f, 0.008446f, 0.011592f, -0.019105f, -0.013690f, -0.011454f, -0.013726f, -0.008923f, 0.007935f, -0.002671f, -0.001767f, -0.012415f, -0.012901f, -0.007952f, -0.001412f, 0.000335f, -0.005761f, -0.010455f, -0.012261f, -0.017538f, -0.007106f, -0.008171f, -0.016742f, -0.003049f, -0.007946f, 0.001417f, 0.032471f, 0.015717f, -0.008456f, -0.017718f, 0.014287f, 0.005177f, -0.016305f, 0.004831f, 0.020599f, 0.017505f, 0.030988f, 0.004443f, 0.002526f, 0.012658f, 0.016375f, -0.015093f, 0.001633f, 0.017696f, -0.014863f, 0.015851f, 0.016475f, 0.002870f, -0.011597f, 0.009583f, -0.009406f, -0.032596f, -0.002606f, -0.000054f, 0.020618f, -0.010254f, -0.025404f, 0.015242f, -0.003244f, -0.006477f, -0.021876f, -0.017410f, -0.007939f, 0.000114f, 0.001165f, 0.001556f, -0.003065f, -0.018283f, -0.014282f, -0.010862f, -0.002877f, -0.000506f, 0.010007f, 0.001308f, -0.006578f, 0.022610f, -0.022274f, -0.005822f, 0.007732f, 0.014879f, 0.004893f, 0.028342f, 0.027759f, -0.013709f, -0.009600f, 0.001437f, 0.015457f, 0.005489f, 0.006497f, 0.024394f, -0.000568f, 0.002680f, 0.013326f, 0.019064f, 0.007422f, 0.010588f, 0.000911f, -0.004832f, 0.009960f, -0.007193f, 0.013451f, 0.008751f, 0.011783f, 0.011041f, 0.012631f, 0.015798f, 0.008614f, -0.011716f, 0.030016f, 0.006692f, -0.003330f, -0.008427f, 0.001624f, 0.003433f, -0.009043f, 0.001400f, -0.005579f, 0.017249f, -0.024878f, -0.001769f, 0.011114f, -0.002964f, 0.010809f, -0.021654f, -0.025998f, 0.015274f, -0.009631f, -0.001053f, 0.017188f, -0.002349f, -0.008467f, -0.009391f, -0.019041f, 0.020565f, 0.027109f, -0.001708f, 0.003054f, -0.028895f, 0.004276f, -0.015810f, -0.011266f, 0.000595f, 0.001060f, -0.023777f, 0.017809f, 0.005079f, 0.012739f, -0.002421f, 0.010265f, -0.014190f, 0.019152f, -0.002430f, 0.005842f, -0.005617f, -0.012500f, 0.009836f, 0.008041f, 0.006536f, -0.005476f, -0.003332f, -0.004688f, -0.013151f, 0.005218f, -0.005191f, 0.004305f, -0.030576f, -0.017820f, 0.020487f, -0.016653f, 0.004297f, 0.007657f, -0.010299f, 0.013720f, 0.001571f, -0.007825f, -0.005515f, 0.007847f, 0.009401f, 0.000059f, -0.001639f, 0.008238f, 0.010112f, 0.008227f, 0.007338f, -0.012081f, -0.011864f, 0.002083f, -0.009687f, -0.004219f, -0.013787f, 0.001469f, 0.004174f, 0.015659f, -0.007392f, -0.005493f, -0.022039f, 0.016472f, 0.006056f, 0.019390f, 0.001313f, 0.012659f, 0.004663f, -0.014379f, -0.012025f, -0.003708f, 0.009376f, -0.006435f, -0.006394f, -0.004959f, 0.006583f, -0.004152f, 0.013382f, 0.012630f, -0.019612f, 0.029250f, 0.015224f, 0.008888f, 0.002966f, 0.014464f, 0.010584f, 0.009368f, -0.016724f, -0.017422f, -0.002857f, 0.003100f, -0.020679f, 0.002511f, -0.006370f, -0.009206f, -0.001647f, 0.003304f, -0.031602f, -0.005805f, 0.004103f, 0.000914f, -0.009591f, 0.020272f, 0.017312f, -0.009155f, -0.002900f, 0.004161f, 0.009418f, -0.003430f, -0.005267f, 0.019459f, 0.010342f, -0.003163f, -0.002511f, 0.016629f, 0.016838f, 0.004164f, 0.004945f, 0.009797f, -0.017061f, -0.014180f, 0.011092f, 0.008682f, 0.002216f, -0.003009f, -0.003470f, -0.019108f, -0.003278f, -0.004903f, 0.017264f, 0.012337f, -0.005431f, -0.015810f, 0.004694f, 0.001885f, -0.007864f, -0.011416f, 0.006830f, -0.023806f, 0.004255f, 0.019612f, 0.004811f, -0.007475f, -0.014574f, -0.024148f, 0.017717f, 0.011504f, 0.008630f, -0.007867f, -0.010380f, -0.000875f, -0.017058f, -0.005637f, -0.007985f, 0.005873f, 0.001009f, -0.012464f, -0.001888f, 0.009271f, -0.000651f, -0.030913f, 0.019297f, 0.004338f, -0.015659f, 0.004238f, 0.001633f, 0.006159f, -0.010243f, 0.005695f, -0.001303f, -0.003810f, 0.013080f, -0.013686f, -0.012870f, -0.011188f, 0.012651f, -0.025120f, 0.006229f, -0.020874f, -0.019376f, 0.004529f, 0.033590f, 0.004299f, -0.022620f, 0.001188f, -0.015123f, -0.012511f, -0.001165f, -0.004864f, -0.004755f, 0.020905f, 0.022731f, 0.016931f, -0.032396f, -0.008064f, -0.022526f, 0.009133f, 0.015293f, -0.016688f, -0.016911f, 0.022434f, -0.004119f, 0.009344f, 0.023365f, -0.020445f, 0.009076f, -0.005854f, 0.004706f, 0.030134f, 0.000616f, 0.001758f, 0.013126f, 0.000087f, -0.018276f, -0.001860f, -0.004328f, 0.009231f, -0.006589f, -0.007957f, -0.000907f, -0.039876f, -0.015035f, 0.001316f, -0.002594f, 0.048112f, 0.002941f, -0.002776f, -0.013902f, -0.030495f, -0.000178f, -0.004851f, -0.010237f, 0.008768f, 0.018803f, -0.013392f, 0.008607f, 0.006284f, 0.026452f, -0.016970f, -0.002040f, -0.000885f, 0.002751f, -0.013319f, -0.017135f, 0.023072f, 0.000478f, 0.036253f, -0.008938f, 0.001848f, 0.001060f, 0.000436f, -0.007089f, 0.011708f, 0.008997f, -0.037841f, -0.015705f, -0.021651f, 0.011646f, 0.000637f, 0.014508f, 0.013248f, -0.012054f, 0.025755f, -0.007059f, -0.014583f, -0.015169f, 0.004719f, -0.002809f, 0.022484f, -0.017084f, 0.017964f, -0.011513f, -0.013469f, -0.003018f, -0.012397f, 0.012549f, -0.025980f, -0.003448f, 0.011812f, 0.025232f, 0.018317f, -0.015166f, 0.005637f, 0.022327f, 0.025962f, 0.019773f, -0.014369f, 0.000845f, 0.012729f, -0.002936f, -0.012608f, 0.012979f, 0.014145f, -0.016867f, -0.011596f, 0.002593f, -0.013189f, 0.000402f, -0.000414f, -0.005385f, -0.012414f, -0.007230f, -0.008681f, 0.006950f, 0.001408f, -0.021824f, 0.021178f, 0.005847f, 0.017262f, 0.016080f, -0.003881f, 0.014202f, -0.019413f, 0.001621f, 0.010229f, -0.009751f, -0.021513f, -0.018572f, -0.008661f, 0.003783f, 0.012141f, -0.007483f, 0.015457f, 0.018184f, -0.008531f, 0.006377f, 0.000900f, 0.013670f, 0.029096f, -0.019250f, 0.019132f, 0.005073f, -0.002627f, -0.010377f, 0.003584f, -0.005705f, -0.014674f, 0.016968f, 0.009796f, 0.001088f, -0.012044f, 0.030607f, -0.008063f, -0.011368f, -0.008452f, -0.002445f, 0.022829f, -0.010332f, 0.015514f, 0.001690f, 0.006635f, -0.004394f, 0.009093f, -0.010771f, 0.003826f, 0.013407f, 0.006466f, 0.016642f, -0.027859f, -0.011922f, 0.009899f, -0.016451f, -0.010661f, -0.011895f, -0.007909f, -0.002202f, -0.014247f, -0.001369f, -0.018177f, 0.012520f, 0.020192f, 0.001539f, 0.019312f, 0.008242f, -0.006263f, 0.000934f, -0.007642f, 0.009628f, 0.018301f, -0.006981f, -0.012372f, -0.005029f, -0.021464f, 0.022975f, -0.007650f, 0.003062f, -0.003571f, 0.008816f, 0.002976f, -0.002791f, 0.024743f, 0.007291f, 0.021811f, -0.014903f, 0.008435f, -0.014136f, -0.013385f, 0.002183f, 0.012471f, 0.010257f, 0.002704f, -0.004868f, -0.012459f, 0.000439f, 0.012900f, 0.044073f, 0.021667f, 0.007922f, -0.012196f, 0.019771f, -0.005585f, -0.014783f, 0.013405f, 0.007275f, -0.008819f, -0.002318f, 0.015544f, -0.013148f, 0.023527f, 0.023563f, -0.007514f, -0.004196f, -0.000441f, 0.001006f, 0.002786f, -0.007213f, 0.005505f, -0.010461f, -0.005673f, 0.003500f, 0.000112f, 0.001923f, 0.005172f, -0.008355f, 0.007072f, 0.016907f, -0.006408f, 0.006088f, 0.006346f, -0.002817f, 0.013720f, -0.008044f, 0.003525f, 0.018849f, -0.008983f, 0.027543f, 0.009781f, 0.006201f, 0.008451f, -0.015496f, -0.007873f, 0.001651f, -0.005511f, 0.030069f, 0.000437f, 0.007638f, 0.007737f, 0.003216f, -0.009265f, 0.008236f, 0.004103f, -0.020132f, -0.014760f, 0.016593f, -0.034388f, -0.006391f, -0.005909f, -0.003238f, 0.015705f, 0.006445f, -0.004052f, 0.018289f, 0.012226f, -0.001847f, -0.003278f, 0.025416f, -0.013226f, 0.008946f, 0.014306f, -0.018374f, -0.001564f, 0.007688f, -0.013293f, -0.015353f, -0.025329f, -0.011934f, -0.008164f, 0.013702f, -0.003084f, 0.000368f, 0.016077f, 0.003972f, 0.006914f, 0.008303f, -0.000211f, 0.001282f, 0.012276f, 0.002437f, 0.011543f, -0.010730f, -0.008042f, 0.018424f, 0.000260f, 0.013586f, 0.010937f, -0.011344f, 0.010383f, 0.008741f, 0.002115f, 0.005059f, 0.003223f, -0.006845f, 0.003265f, 0.003795f, -0.030798f, 0.007031f, 0.014137f, -0.002867f, 0.007825f, 0.005511f, -0.015179f, -0.015287f, -0.002855f, 0.017234f, -0.023552f, 0.006547f, -0.021050f, 0.013639f, -0.005198f, -0.006919f, 0.008142f, -0.003998f, 0.013023f, -0.014316f, 0.004049f, -0.019321f, -0.016104f, 0.010901f, -0.001537f, -0.005098f, -0.037695f, -0.009454f, -0.034692f, -0.018208f, 0.012598f, 0.014614f, -0.000517f, -0.003763f, -0.025367f, -0.012661f, -0.021914f, 0.013329f, -0.002500f, -0.022700f, -0.010693f, 0.001016f, 0.004265f, 0.042781f, -0.017950f, 0.010695f, 0.011728f, -0.021483f, 0.006027f, 0.007850f, 0.003772f, 0.009984f, -0.002882f, 0.010391f, -0.007999f, 0.011601f, -0.008829f, -0.015032f, 0.011832f, -0.000830f, 0.007871f, -0.007117f, 0.016946f, 0.006637f, -0.013264f, -0.003417f, 0.002927f, 0.004905f, 0.013431f, 0.009849f, 0.020307f, -0.008928f, 0.008480f, -0.030998f, -0.015310f, -0.009502f, 0.001466f, -0.011746f, 0.030574f, 0.020584f, 0.011445f, -0.020714f, -0.000882f, 0.000350f, 0.010622f, -0.002036f, -0.017397f, -0.008002f, 0.021160f, 0.004294f, 0.022353f, -0.004046f, -0.020471f, 0.002354f, -0.001146f, -0.006352f, 0.017952f, 0.021104f, 0.008554f, -0.004738f, -0.013331f, -0.001835f, 0.005197f, -0.004069f, 0.012958f, -0.017069f, -0.021653f, 0.002557f, -0.001781f, 0.001515f, -0.002631f, -0.009740f, 0.011879f, 0.034504f, 0.015635f, -0.021275f, -0.030478f, -0.008096f, 0.010314f, 0.019258f, 0.028323f, -0.004139f, -0.026587f, 0.021663f, -0.011256f, 0.008156f, 0.003385f, -0.002156f, 0.008677f, 0.006082f, 0.014211f, -0.012924f, -0.015939f, -0.002579f, -0.004055f, -0.003003f, -0.008055f, 0.010979f, 0.001871f, -0.013159f, -0.001463f, -0.002921f, 0.010412f, -0.009709f, -0.007602f, 0.008307f, 0.001045f, 0.001509f, 0.008118f, 0.015753f, -0.005302f, 0.001290f, -0.011290f, 0.005825f, 0.021851f, -0.003107f, 0.026876f, -0.012259f, 0.002438f, -0.009482f, -0.002598f, 0.017443f, 0.015778f, 0.012953f, -0.000132f, -0.010294f, 0.010098f, -0.013083f, 0.003066f, 0.004534f, -0.006997f, -0.008157f, -0.000037f, -0.000172f, -0.015351f, 0.026760f, 0.004435f, -0.002501f, 0.011125f, -0.009681f, -0.016377f, -0.009503f, 0.002739f, 0.016172f, -0.009636f, -0.008726f, 0.015316f, 0.002732f, -0.011639f, -0.005606f, 0.001244f, -0.001321f, 0.009225f, 0.010288f, 0.011953f, 0.004476f, 0.000405f, -0.002664f, -0.027911f, 0.001501f, 0.013364f, 0.018014f, 0.035188f, -0.007551f, 0.030206f, 0.000994f, 0.005158f, -0.015985f, 0.013453f, 0.018167f, 0.008225f, 0.023584f, -0.005231f, 0.005421f, -0.014578f, -0.001072f, -0.009366f, 0.022339f, -0.002299f, -0.035559f, 0.008902f, -0.010874f, -0.005552f, 0.003511f, -0.022914f, 0.005190f, -0.002637f, -0.027395f, 0.014972f, 0.004858f, 0.002484f, 0.014303f, 0.016287f, 0.012615f, -0.000619f, -0.006218f, -0.014422f, 0.006360f, -0.005156f, 0.017785f, 0.004913f, -0.029238f, -0.015743f, 0.019022f, 0.008802f, -0.018116f, 0.013995f, 0.010451f, -0.008959f, -0.034160f, 0.019880f, -0.018517f, 0.012828f, 0.011519f, -0.000543f, -0.013856f, -0.008348f, -0.016178f, -0.011534f, -0.023865f, -0.021178f, -0.006895f, -0.004618f, -0.006465f, 0.000055f, 0.007488f, 0.003740f, 0.020659f, 0.003553f, -0.012450f, -0.006649f, 0.024962f, 0.031544f, 0.000225f, -0.037694f, -0.019413f, -0.010068f, 0.011835f, -0.021991f, -0.011203f, 0.015789f, 0.001218f, -0.041296f, -0.003928f, -0.019435f, 0.003753f, -0.019245f, -0.018111f, 0.002815f, -0.015728f, 0.010860f, 0.001981f, -0.000157f, -0.000916f, -0.006810f, -0.002985f, 0.013675f, -0.008155f, 0.003491f, -0.013697f, 0.003887f, 0.006878f, 0.011814f, 0.012987f, 0.014960f, 0.002226f, -0.008158f, -0.000895f, -0.018466f, 0.005387f, 0.032944f, 0.001100f, 0.018526f, -0.019169f, -0.002183f, 0.021078f, 0.018917f, 0.004125f, -0.011383f, -0.012580f, -0.021331f, 0.012932f, 0.000570f, 0.012298f, -0.002774f, 0.000284f, -0.019634f, -0.013543f, -0.009046f, -0.007387f, -0.012617f, -0.017510f, 0.003862f, 0.009483f, -0.012096f, -0.007963f, 0.036664f, -0.011781f, -0.009570f, -0.011143f, -0.025582f, -0.013231f, -0.012929f, 0.013745f, -0.007950f, -0.005718f, -0.014586f, -0.002550f, 0.006145f, 0.005016f, -0.003017f, 0.013309f, -0.000148f, 0.031199f, 0.017465f, 0.001896f, -0.008663f, -0.002562f, -0.001384f, 0.009638f, 0.015797f, 0.014788f, -0.012144f, -0.015046f, -0.001442f, 0.024015f, 0.002283f, -0.000508f, -0.007191f, 0.012571f, -0.016288f, 0.004677f, 0.001614f, 0.015475f, -0.027012f, -0.005256f, 0.003680f, 0.004449f, 0.010432f, 0.020752f, 0.014392f, -0.004780f, -0.022979f, -0.010552f, 0.005095f, -0.001582f, -0.011282f, 0.003061f, -0.005888f, -0.008072f, 0.023082f, 0.015637f, 0.007931f, 0.008320f, -0.015265f, -0.016595f, -0.000518f, 0.023059f, 0.022068f, -0.011729f, 0.023402f, -0.007750f, 0.009126f, -0.024218f, -0.005809f, 0.006405f, -0.023118f, -0.015860f, 0.001402f, -0.006074f, 0.008569f, 0.008672f, -0.026931f, 0.009475f, 0.003686f, -0.002027f, 0.006114f, 0.000192f, -0.006106f, -0.009391f, -0.000958f, 0.025277f, -0.008809f, -0.021154f, -0.017107f, -0.022022f, -0.002147f, 0.004031f, 0.024005f, -0.019917f, 0.008997f, -0.003802f, 0.020270f, -0.009011f, -0.003823f, 0.009473f, -0.010745f, 0.011198f, -0.022714f, -0.000670f, 0.000220f, -0.001841f, 0.016145f, 0.014700f, -0.022509f, 0.005487f, -0.000928f, 0.013634f, -0.014440f, 0.010561f, -0.009285f, -0.012568f, 0.001920f, -0.010484f, 0.020294f, -0.002212f, 0.018634f, -0.010369f, -0.020768f, -0.002107f, 0.016265f, -0.010720f, 0.011234f, 0.003834f, 0.004326f, 0.012212f, -0.006145f, 0.026893f, 0.011272f, 0.006855f, -0.000809f, 0.000668f, 0.001991f, -0.007897f, 0.029523f, -0.002439f, 0.013596f, -0.005666f, -0.017636f, -0.023076f, -0.011889f, 0.000095f, -0.016167f, 0.005079f, -0.021985f, 0.009733f, 0.019285f, 0.015051f, -0.018215f, 0.009676f, -0.037140f, -0.003915f, 0.008663f, 0.016071f, 0.007287f, 0.008935f, 0.011506f, -0.011616f, 0.015237f, 0.001484f, -0.007946f, -0.020195f, -0.018893f, 0.030206f, 0.000941f, 0.015467f, 0.004120f, -0.002680f, -0.012284f, -0.019216f, 0.016324f, -0.020650f, -0.000618f, 0.012109f, -0.013517f, -0.012909f, -0.025625f, -0.013626f, -0.012393f, 0.013777f, 0.018987f, 0.012461f, 0.013573f, 0.009890f, -0.015502f, 0.007814f, 0.018415f, 0.004819f, -0.005157f, 0.003708f, 0.026400f, -0.002769f, -0.002884f, 0.000616f, -0.023249f, 0.015618f, -0.009532f, 0.001527f, 0.026820f, 0.025446f, 0.017254f, 0.015379f, 0.009094f, -0.007324f, -0.011123f, -0.006489f, -0.011211f, 0.000778f, -0.002385f, -0.005570f, -0.007066f, 0.004042f, 0.003677f, -0.008060f, 0.005896f, 0.017924f, -0.019192f, 0.013118f, -0.016718f, 0.005099f, 0.016728f, 0.006691f, -0.020753f, 0.004907f, 0.000430f, 0.012237f, -0.000617f, -0.027906f, -0.002377f, 0.009648f, 0.009897f, -0.003469f, -0.011045f, -0.003503f, -0.007392f, 0.007005f, -0.016235f, 0.016251f, -0.021089f, -0.012755f, -0.002500f, 0.004010f, 0.023117f, 0.004942f, -0.011355f, -0.014916f, 0.002834f, -0.004312f, 0.001651f, -0.019043f, -0.009746f, 0.011767f, -0.024959f, 0.005863f, -0.001978f, -0.005431f, 0.006567f, -0.010168f, -0.032440f, 0.017311f, 0.018637f, -0.009869f, 0.008739f, 0.012980f, -0.009945f, 0.013740f, -0.009202f, -0.008092f, -0.016770f, 0.019614f, 0.002864f, -0.010403f, 0.014621f, -0.009049f, 0.016612f, -0.012829f, -0.001570f, -0.006929f, 0.004751f, -0.012539f, -0.016794f, 0.004303f, 0.003499f, -0.001392f, 0.004533f, 0.022564f, -0.006627f, -0.004483f, -0.000130f, -0.000495f, -0.019078f, -0.004852f, 0.009248f, 0.000241f, 0.017917f, 0.000978f, -0.015251f, 0.007689f, 0.008179f, -0.031798f, 0.010951f, 0.017179f, 0.000116f, -0.017452f, -0.013487f, -0.003852f, -0.011888f, -0.012928f, -0.006088f, -0.018997f, 0.001647f, 0.017337f, 0.001803f, 0.011495f, -0.009850f, 0.016449f, 0.008437f, 0.023030f, -0.019419f, 0.026689f, -0.034851f, 0.001763f, -0.009115f, 0.003070f, 0.005209f, -0.004136f, -0.015312f, 0.005916f, 0.020951f, 0.003075f, 0.000390f, -0.002494f, 0.016069f, -0.001533f, 0.006108f, 0.000813f, 0.000500f, 0.006334f, 0.008533f, -0.004704f, 0.013440f, 0.037492f, -0.000438f, -0.023659f, -0.031876f, -0.004788f, -0.007981f, 0.010830f, 0.000335f, -0.006486f, -0.010531f, -0.003289f, -0.006626f, -0.019204f, -0.010757f, -0.001009f, 0.007493f, 0.009481f, 0.005422f, 0.013321f, 0.000940f, 0.005403f, 0.000578f, -0.014700f, 0.009644f, -0.002273f, -0.002878f, 0.019343f, 0.005917f, -0.019763f, 0.005105f, -0.012524f, 0.012708f, 0.011860f, 0.034142f, -0.008153f, -0.014138f, -0.005494f, 0.019335f, -0.017398f, 0.007860f, 0.002463f, 0.016046f, -0.035781f, 0.013576f, 0.020244f, 0.007589f, -0.017454f, 0.026471f, -0.003824f, -0.012382f, 0.015478f, 0.014821f, 0.011496f, 0.007081f, -0.041296f, -0.003937f, 0.003970f, -0.001865f, -0.000499f, -0.007105f, -0.014246f, 0.004830f, -0.010258f, -0.001308f, 0.008412f, -0.001431f, -0.012025f, -0.015357f, -0.002400f, 0.008950f, -0.020600f, 0.011415f, -0.001349f, -0.015480f, -0.009859f, -0.002493f, -0.016734f, -0.004954f, -0.003930f, -0.019261f, 0.005188f, -0.002646f, 0.007750f, 0.018756f, -0.016954f, -0.005705f, 0.011371f, -0.009374f, -0.000352f, -0.011105f, -0.009209f, -0.021602f, 0.009303f, -0.007618f, 0.008682f, -0.036655f, 0.000026f, 0.006163f, -0.001855f, 0.003188f, 0.006503f, -0.002723f, 0.011503f, -0.013036f, -0.017692f, 0.004989f, 0.027522f, -0.010723f, -0.002488f, 0.001845f, 0.002208f, -0.000689f, 0.023351f, 0.011470f, 0.013591f, -0.002018f, -0.004015f, -0.000709f, 0.006890f, -0.011809f, 0.012383f, 0.012464f, 0.012789f, 0.000096f, -0.015094f, -0.004237f, -0.003613f, 0.019482f, -0.004301f, 0.011942f, -0.012937f, -0.001040f, -0.000178f, 0.020687f, 0.004392f, -0.002294f, 0.006776f, 0.007764f, 0.001228f, 0.007883f, -0.031570f, 0.021203f, -0.007528f, -0.017231f, -0.002783f, 0.014360f, -0.001531f, -0.016606f, -0.021207f, -0.004180f, -0.014093f, 0.008712f, 0.012850f, -0.001651f, -0.001746f, 0.010742f, -0.011555f, 0.002845f, 0.006983f, 0.015558f, -0.020265f, -0.006629f, -0.007659f, 0.004128f, 0.004092f, -0.000010f, -0.002035f, 0.003283f, -0.014997f, -0.011822f, -0.023985f, 0.012625f, -0.020312f, -0.003074f, -0.027774f, -0.016963f, 0.002943f, -0.017961f, -0.003494f, 0.004966f, 0.014693f, -0.010899f, 0.008833f, 0.001811f, -0.005059f, -0.001380f, 0.015590f, 0.016682f, -0.001309f, -0.017748f, 0.003444f, -0.014701f, -0.010820f, -0.004502f, 0.002890f, 0.010705f, 0.003757f, -0.024266f, 0.010789f, -0.001921f, -0.009697f, 0.012524f, 0.017634f, 0.026120f, -0.024816f, 0.009216f, 0.003489f, 0.004693f, -0.015261f, -0.021027f, -0.029866f, 0.010081f, -0.018271f, -0.012069f, 0.011411f, 0.011102f, -0.000884f, -0.008463f, -0.005873f, 0.009379f, -0.006187f, -0.004989f, 0.018879f, 0.001245f, -0.017607f, -0.014648f, 0.019325f, -0.031144f, 0.023697f, -0.024854f, -0.005135f, 0.010943f, -0.005367f, -0.015706f, 0.013212f, -0.001620f, 0.035813f, -0.014356f, -0.010018f, 0.005515f, -0.007755f, -0.026216f, -0.004177f, 0.005100f, 0.017304f, 0.004761f, 0.003709f, 0.002662f, 0.006848f, 0.004619f, -0.006672f, 0.013866f, 0.006459f, -0.022323f, 0.024923f, 0.031769f, -0.010006f, 0.012200f, -0.016647f, -0.013618f, -0.000506f, -0.010276f, -0.010132f, 0.003629f, -0.004829f, -0.001005f, -0.005883f, -0.006604f, -0.012221f, -0.003262f, -0.003354f, 0.002411f, 0.002403f, 0.000112f, 0.025295f, 0.002041f, 0.004185f, 0.008594f, -0.002879f, 0.007003f, 0.009455f, -0.003321f, 0.010088f, -0.015740f, 0.013414f, 0.004783f, 0.013045f, 0.023657f, 0.020535f, 0.041438f, -0.003140f, -0.005414f, -0.002413f, -0.004168f, 0.001543f, -0.006369f, -0.018785f, -0.014502f, -0.008415f, 0.018495f, 0.000281f, -0.001575f, 0.011526f, -0.013331f, -0.018007f, -0.016450f, -0.002806f, 0.029863f, -0.004090f, -0.010986f, 0.002590f, 0.009306f, -0.002473f, 0.007637f, 0.023841f, 0.011525f, -0.013371f, 0.028203f, -0.007400f, -0.014552f, -0.004022f, -0.002052f, 0.026057f, -0.010302f, 0.011759f, 0.010800f, 0.024822f, -0.001316f, 0.020329f, 0.006846f, 0.005323f, -0.017860f, -0.022962f, -0.002600f, -0.000461f, -0.030266f, -0.011616f, 0.008055f, -0.002383f, -0.010161f, -0.002066f, -0.008446f, 0.016879f, 0.005896f, -0.006839f, 0.021173f, -0.006808f, -0.006396f, -0.012764f, -0.012853f, -0.000022f, 0.020372f, -0.019444f, -0.015650f, 0.005309f, -0.020789f, 0.014647f, -0.015487f, -0.003937f, 0.008691f, -0.019420f, 0.010272f, 0.003800f, 0.007891f, -0.000507f, -0.000497f, 0.020465f, 0.013001f, -0.010691f, 0.015481f, -0.020117f, -0.004297f, 0.003126f, 0.011061f, 0.003609f, 0.034352f, -0.003586f, 0.011479f, 0.007199f, -0.002024f, 0.004334f, 0.009281f, 0.001368f, -0.017128f, 0.016398f, 0.016159f, -0.001850f, 0.019290f, 0.000222f, -0.001703f, -0.010881f, 0.003758f, 0.022857f, -0.003345f, -0.013405f, 0.030753f, 0.007489f, 0.010130f, -0.004933f, -0.013162f, -0.003051f, -0.002774f, 0.014092f, 0.011603f, 0.011753f, 0.024237f, -0.001466f, 0.003983f, -0.000749f, 0.019037f, -0.003550f, 0.026498f, -0.010799f, -0.009398f, -0.007772f, 0.027621f, 0.000694f, -0.004651f, 0.016488f, -0.001624f, 0.004991f, 0.011274f, -0.006970f, -0.007053f, 0.006482f, 0.003211f, -0.004217f, 0.003042f, -0.015010f, -0.007313f, -0.015948f, -0.009944f, 0.004591f, -0.004214f, -0.016141f, 0.023180f, -0.002240f, -0.004813f, 0.002986f, 0.014162f, 0.000714f, 0.007727f, 0.009796f, -0.005646f, 0.002012f, 0.007195f, -0.031711f, 0.014112f, -0.033423f, 0.014823f, 0.009369f, 0.011205f, 0.025928f, 0.012994f, 0.004971f, -0.005457f, 0.000262f, -0.005075f, 0.025416f, -0.015886f, -0.002586f, -0.011627f, -0.021102f, 0.002406f, 0.013488f, 0.004584f, -0.006456f, 0.002614f, -0.011384f, 0.017211f, -0.005380f, -0.010437f, -0.010336f, -0.004151f, 0.008513f, 0.000847f, -0.000979f, 0.003433f, 0.010836f, -0.002940f, 0.001440f, -0.010510f, 0.014277f, -0.012548f, 0.007814f, -0.016347f, -0.001162f, 0.012166f, 0.011256f, 0.010387f, 0.004502f, -0.002302f, -0.007080f, -0.020663f, 0.010461f, 0.003488f, 0.000706f, 0.026359f, 0.015286f, 0.007718f, -0.014406f, 0.005442f, -0.000341f, -0.024776f, -0.006281f, -0.006755f, -0.014460f, 0.006215f, 0.011646f, 0.002477f, -0.010741f, 0.001502f, 0.004735f, 0.008589f, 0.023133f, -0.020400f, -0.009507f, -0.000092f, 0.004270f, -0.010727f, 0.002927f, -0.005805f, 0.005705f, 0.003925f, -0.006329f, -0.009616f, -0.009856f, -0.002607f, -0.002174f, -0.004240f, -0.018260f, 0.001420f, 0.005406f, -0.015720f, -0.011206f, 0.001690f, -0.012969f, 0.007384f, 0.002531f, -0.002169f, -0.002001f, 0.004368f, 0.012013f, 0.013298f, -0.001197f, 0.005537f, 0.020956f, 0.010959f, 0.008292f, -0.024804f, 0.009079f, -0.029507f, -0.020566f, -0.022568f, 0.015545f, 0.017643f, -0.002497f, -0.000177f, 0.005161f, 0.010411f, 0.007835f, -0.010632f, -0.015673f, -0.000812f, 0.007025f, -0.010104f, 0.012857f, 0.012056f, 0.020568f, 0.023076f, 0.002450f, 0.003821f, 0.013003f, 0.004123f, -0.006524f, -0.022081f, 0.006623f, -0.002178f, 0.002325f, 0.006452f, -0.005016f, -0.015597f, 0.009850f, -0.012428f, 0.025630f, 0.019959f, -0.006161f, 0.014839f, -0.003012f, 0.019173f, -0.008109f, 0.009832f, -0.002564f, -0.006750f, -0.001493f, -0.013975f, 0.005085f, 0.019844f, 0.004012f, 0.002155f, 0.015689f, -0.018055f, 0.010532f, -0.001153f, 0.024278f, -0.006463f, -0.005075f, -0.019548f, -0.002277f, -0.009578f, 0.029099f, -0.011169f, -0.006809f, -0.001040f, 0.009701f, 0.003029f, -0.003434f, 0.005186f, 0.006193f, 0.013045f, 0.003703f, -0.012662f, 0.003013f, -0.013657f, -0.005545f, 0.003399f, -0.021363f, -0.015524f, -0.012670f, -0.012268f, -0.002425f, -0.026054f, 0.012624f, -0.003312f, 0.005395f, -0.015551f, 0.005617f, -0.002277f, 0.011274f, 0.003030f, 0.016658f, 0.002381f, -0.010302f, 0.000565f, -0.002510f, 0.034748f, -0.031901f, -0.010337f, 0.016779f, 0.004335f, -0.014455f, 0.008376f, -0.007104f, 0.035637f, 0.002667f, 0.007316f, 0.001852f, 0.017826f, -0.004123f, 0.012634f, 0.006597f, 0.014926f, -0.035299f, 0.022597f, 0.013867f, 0.002965f, 0.009597f, -0.016444f, 0.005169f, -0.011228f, 0.000242f, 0.008727f, 0.016787f, 0.013121f, -0.011000f, 0.025834f, -0.001944f, 0.000985f, 0.000852f, 0.013522f, -0.010574f, -0.030526f, -0.001285f, 0.024058f, -0.029499f, 0.016971f, 0.015493f, -0.015189f, -0.005430f, -0.004089f, -0.004225f, -0.002987f, 0.013422f, 0.025377f, 0.009634f, 0.005449f, 0.003717f, 0.017865f, -0.011231f, 0.010681f, 0.028739f, -0.014204f, -0.012905f, 0.008665f, 0.004620f, -0.019217f, -0.005859f, 0.011036f, 0.012620f, -0.004033f, -0.000960f, -0.006537f, 0.009096f, -0.023383f, -0.003243f, -0.012282f, -0.009983f, 0.024185f, -0.001524f, 0.031379f, -0.017508f, 0.007836f, 0.003061f, 0.015821f, 0.015515f, 0.009202f, -0.002670f, -0.002632f, 0.002797f, 0.021165f, 0.006174f, 0.008908f, -0.008658f, -0.029744f, 0.002519f, -0.019569f, -0.005168f, 0.038266f, 0.006632f, -0.009472f, 0.012664f, 0.017461f, 0.020388f, 0.002351f, -0.008617f, -0.000236f, -0.012724f, 0.004011f, -0.004660f, 0.019094f, -0.014451f, -0.002070f, -0.001649f, -0.011486f, -0.006330f, 0.008165f, 0.002672f, -0.011023f, 0.003078f, 0.002371f, -0.007746f, -0.006040f, -0.001735f, 0.004392f, 0.012897f, -0.031572f, -0.003182f, -0.027337f, 0.010600f, 0.004424f, 0.012039f, 0.006141f, 0.014782f, 0.001388f, -0.017454f, 0.000591f, 0.011381f, 0.000401f, -0.006469f, -0.005617f, -0.008086f, -0.011505f, 0.013298f, 0.025644f, -0.003511f, -0.014203f, -0.003643f, -0.003374f, -0.012096f, -0.019615f, 0.014663f, -0.006360f, 0.016419f, -0.004767f, 0.026488f, -0.001044f, -0.006517f, -0.017069f, 0.009595f, 0.004719f, -0.003790f, 0.012600f, -0.011351f, -0.036045f, -0.002134f, -0.017845f, -0.016033f, -0.010344f, -0.000797f, 0.027596f, 0.008175f, -0.004109f, -0.012015f, 0.003787f, -0.000913f, -0.010444f, 0.010037f, 0.001967f, -0.014149f, 0.000525f, 0.018209f, -0.017280f, 0.027699f, -0.003513f, -0.000956f, -0.001418f, 0.011710f, -0.014813f, -0.015350f, 0.008540f, -0.002992f, -0.009194f, 0.013590f, -0.002195f, -0.013828f, 0.003155f, 0.024291f, 0.030711f, 0.011390f, -0.002734f, 0.008522f, 0.013850f, -0.002480f, -0.019021f, -0.009125f, -0.013314f, 0.016443f, -0.003630f, -0.004429f, 0.000157f, 0.005399f, 0.000750f, -0.012207f, 0.002102f, -0.004655f, 0.003716f, 0.009376f, -0.010149f, -0.004981f, -0.010581f, -0.007094f, 0.003760f, 0.010741f, 0.008695f, 0.016823f, 0.010716f, -0.020128f, 0.012352f, 0.000043f, 0.025546f, -0.006313f, 0.006351f, -0.010165f, 0.007485f, -0.009142f, 0.014053f, -0.011870f, -0.009603f, 0.019415f, 0.004622f, 0.003685f, -0.003625f, 0.010341f, 0.015035f, 0.004421f, -0.016383f, -0.000440f, 0.013890f, -0.013571f, -0.014540f, -0.002363f, 0.012582f, -0.008121f, 0.034911f, -0.006349f, -0.006898f, -0.016039f, 0.002210f, -0.025499f, 0.027310f, 0.001450f, 0.032009f, 0.021905f, 0.024737f, -0.005869f, -0.002065f, -0.020297f, -0.005449f, -0.001002f, -0.032096f, 0.000929f, 0.015628f, -0.009832f, 0.005234f, 0.004316f, -0.004783f, 0.008009f, 0.012819f, -0.009833f, -0.007819f, -0.013099f, 0.014250f, -0.009473f, -0.016317f, -0.004585f, -0.009915f, -0.001444f, -0.006659f, 0.021758f, 0.012716f, -0.006513f, 0.005966f, -0.014919f, -0.006284f, -0.012888f, 0.013011f, -0.020247f, -0.022456f, 0.003582f, -0.008608f, 0.000343f, 0.013513f, 0.003321f, 0.021709f, 0.026542f, -0.003765f, 0.003312f, 0.019357f, -0.009550f, 0.006494f };
static const float seqdense_layer2_biases[64] = { 0.105085f, -0.092822f, -0.050749f, 0.097144f, 0.173247f, -0.178798f, 0.535645f, -0.236361f, 0.135132f, -0.239469f, 0.247177f, -0.368084f, -0.495967f, -0.405528f, 0.314830f, -0.631725f, -0.581405f, 0.209384f, -0.361595f, -0.119175f, -0.159354f, 0.150923f, -0.125426f, -0.414522f, 0.114849f, -0.251684f, 0.036563f, -0.198660f, -0.059259f, 0.215726f, -0.154467f, 0.127909f, -0.467780f, -0.112532f, 0.507064f, -0.080297f, -0.415343f, -0.726779f, -0.097977f, -0.105704f, -0.006951f, 0.316257f, 0.028180f, -0.181496f, -0.154866f, 0.271501f, -0.005474f, 0.438814f, -0.349613f, -0.170587f, -0.158151f, 0.448116f, -0.203864f, -0.090223f, -0.042201f, -0.251714f, -0.100892f, -0.128717f, 0.450207f, -0.197405f, -0.126981f, 0.040288f, -0.168570f, 0.093515f };
static const float seqdense_layer3_weights[192] = { 0.003108f, 0.001872f, 0.007197f, 0.001544f, -0.005880f, 0.004162f, -0.001266f, -0.003246f, -0.005188f, -0.002129f, -0.006639f, 0.000257f, -0.004414f, 0.004623f, -0.002921f, -0.001512f, 0.003843f, -0.004407f, -0.000195f, -0.000794f, -0.003094f, -0.001885f, 0.001870f, -0.001678f, -0.005327f, -0.005361f, 0.001351f, 0.000797f, 0.000698f, 0.001239f, -0.002629f, 0.000939f, -0.005604f, 0.001336f, -0.002580f, 0.002283f, -0.003368f, -0.001105f, 0.001033f, 0.001038f, 0.001972f, -0.003291f, -0.000667f, -0.007020f, -0.000826f, -0.001749f, -0.003632f, 0.003819f, 0.003669f, 0.001173f, 0.003065f, 0.003183f, -0.001151f, 0.002260f, 0.002413f, 0.001898f, 0.001947f, 0.001966f, 0.008184f, -0.001301f, -0.001455f, -0.000193f, -0.001696f, -0.000759f, -0.002630f, -0.001697f, -0.000914f, -0.002493f, 0.003590f, 0.000445f, 0.002921f, 0.001193f, -0.001522f, -0.004332f, 0.009055f, 0.003561f, 0.005118f, -0.002656f, 0.002684f, 0.001765f, 0.001481f, 0.004251f, 0.004395f, 0.000635f, 0.000677f, -0.000963f, -0.003428f, 0.002209f, 0.002249f, -0.005528f, -0.000012f, 0.006170f, -0.000640f, -0.002566f, 0.004279f, -0.003092f, 0.000426f, 0.001193f, 0.000678f, 0.004357f, 0.002256f, -0.000105f, -0.003240f, -0.006568f, 0.000469f, -0.002791f, -0.000595f, -0.003226f, 0.002753f, 0.000978f, -0.004021f, 0.000568f, 0.000186f, 0.001102f, -0.001867f, -0.005290f, -0.002723f, -0.004422f, -0.000252f, -0.003200f, 0.003494f, 0.000653f, 0.000484f, -0.000415f, 0.001198f, -0.004935f, -0.003264f, -0.003543f, 0.002759f, 0.001091f, 0.003202f, 0.000674f, 0.001017f, -0.001905f, 0.005881f, -0.001243f, -0.001372f, 0.001085f, 0.001197f, 0.004665f, -0.002195f, -0.000497f, -0.003739f, 0.000177f, 0.000805f, 0.000061f, 0.000340f, -0.002650f, -0.002165f, -0.001165f, 0.004958f, -0.003879f, 0.008409f, -0.002354f, 0.001424f, -0.000967f, -0.004790f, -0.001195f, -0.009053f, 0.002791f, -0.000696f, 0.001621f, 0.000105f, -0.002478f, -0.003548f, 0.001888f, 0.002215f, 0.001998f, 0.003124f, 0.005149f, 0.000465f, 0.000778f, 0.001626f, 0.005986f, 0.000610f, -0.001420f, -0.003691f, 0.004133f, 0.005021f, -0.001894f, -0.001790f, -0.000097f, 0.000550f, -0.003252f, -0.002959f, 0.000480f, 0.000770f, -0.002595f, -0.003017f, -0.001028f, 0.003743f, -0.001169f };
static const float seqdense_layer3_biases[3] = { 7.401670f, -0.006358f, 0.001290f };
static float seqdense_buf1[64];
static float seqdense_buf2[64];
static const EmlNetLayer seqdense_layers[4] = { 
{ 9, 9, seqdense_layer0_weights, seqdense_layer0_biases, EmlNetActivationIdentity }, 
{ 64, 9, seqdense_layer1_weights, seqdense_layer1_biases, EmlNetActivationIdentity }, 
{ 64, 64, seqdense_layer2_weights, seqdense_layer2_biases, EmlNetActivationIdentity }, 
{ 3, 64, seqdense_layer3_weights, seqdense_layer3_biases, EmlNetActivationIdentity } };
static EmlNet seqdense = { 4, seqdense_layers, seqdense_buf1, seqdense_buf2, 64 };

    int32_t
    seqdense_predict(const float *features, int32_t n_features)
    {
        return eml_net_predict(&seqdense, features, n_features);
    }
    

    int32_t
    seqdense_regress(const float *features, int32_t n_features, float *out, int32_t out_length)
    {
        return eml_net_regress(&seqdense, features, n_features, out, out_length);
    }
    

    float
    seqdense_regress1(const float *features, int32_t n_features)
    {
        return eml_net_regress1(&seqdense, features, n_features);
    }
    